digraph Tree {
node [shape=box, style="filled, rounded", color="black", fontname=helvetica] ;
edge [fontname=helvetica] ;
0 [label=<pixel_351 &le; 126.5<br/>gini = 0.9<br/>samples = 100.0%<br/>value = [0.1, 0.113, 0.099, 0.103, 0.097, 0.089, 0.098, 0.104<br/>0.097, 0.1]<br/>class = 1>, fillcolor="#e2e53903"] ;
1 [label=<pixel_436 &le; 0.5<br/>gini = 0.88<br/>samples = 64.6%<br/>value = [0.142, 0.015, 0.121, 0.032, 0.137, 0.081, 0.122, 0.147<br/>0.078, 0.124]<br/>class = 7>, fillcolor="#a339e502"] ;
0 -> 1 [labeldistance=2.5, labelangle=45, headlabel="True"] ;
2 [label=<pixel_598 &le; 1.5<br/>gini = 0.688<br/>samples = 17.2%<br/>value = [0.52, 0.004, 0.063, 0.027, 0.043, 0.09, 0.053, 0.149<br/>0.012, 0.039]<br/>class = 0>, fillcolor="#e581396f"] ;
1 -> 2 ;
3 [label=<pixel_459 &le; 1.5<br/>gini = 0.786<br/>samples = 6.3%<br/>value = [0.121, 0.005, 0.035, 0.024, 0.115, 0.103, 0.091, 0.394<br/>0.01, 0.101]<br/>class = 7>, fillcolor="#a339e54f"] ;
2 -> 3 ;
4 [label=<pixel_185 &le; 2.5<br/>gini = 0.574<br/>samples = 3.7%<br/>value = [0.095, 0.008, 0.024, 0.027, 0.04, 0.077, 0.019, 0.635<br/>0.006, 0.068]<br/>class = 7>, fillcolor="#a339e598"] ;
3 -> 4 ;
5 [label=<gini = 0.372<br/>samples = 2.8%<br/>value = [0.028, 0.006, 0.014, 0.01, 0.044, 0.041, 0.022, 0.788<br/>0.002, 0.044]<br/>class = 7>, fillcolor="#a339e5c6"] ;
4 -> 5 ;
156 [label=<gini = 0.804<br/>samples = 0.8%<br/>value = [0.328, 0.012, 0.06, 0.087, 0.025, 0.204, 0.01, 0.104<br/>0.017, 0.152]<br/>class = 0>, fillcolor="#e5813928"] ;
4 -> 156 ;
281 [label=<gini = 0.844<br/>samples = 2.7%<br/>value = [0.156, 0.002, 0.051, 0.019, 0.218, 0.139, 0.19, 0.061<br/>0.017, 0.148]<br/>class = 4>, fillcolor="#39e5c509"] ;
3 -> 281 ;
606 [label=<pixel_490 &le; 1.5<br/>gini = 0.418<br/>samples = 10.9%<br/>value = [0.753, 0.003, 0.079, 0.029, 0.002, 0.082, 0.031, 0.007<br/>0.013, 0.003]<br/>class = 0>, fillcolor="#e58139ba"] ;
2 -> 606 ;
607 [label=<pixel_381 &le; 1.5<br/>gini = 0.253<br/>samples = 9.2%<br/>value = [0.861, 0.001, 0.018, 0.03, 0.001, 0.054, 0.023, 0.004<br/>0.004, 0.003]<br/>class = 0>, fillcolor="#e58139da"] ;
606 -> 607 ;
608 [label=<gini = 0.138<br/>samples = 8.3%<br/>value = [0.928, 0.001, 0.013, 0.014, 0.001, 0.024, 0.013, 0.004<br/>0.001, 0.001]<br/>class = 0>, fillcolor="#e58139ec"] ;
607 -> 608 ;
755 [label=<gini = 0.778<br/>samples = 0.9%<br/>value = [0.224, 0.007, 0.066, 0.184, 0.002, 0.344, 0.12, 0.005<br/>0.035, 0.014]<br/>class = 5>, fillcolor="#399de527"] ;
607 -> 755 ;
886 [label=<gini = 0.745<br/>samples = 1.7%<br/>value = [0.177, 0.009, 0.402, 0.021, 0.004, 0.229, 0.071, 0.021<br/>0.062, 0.005]<br/>class = 2>, fillcolor="#7be53939"] ;
606 -> 886 ;
1041 [label=<pixel_543 &le; 1.5<br/>gini = 0.865<br/>samples = 47.4%<br/>value = [0.005, 0.019, 0.143, 0.035, 0.171, 0.078, 0.146, 0.147<br/>0.101, 0.155]<br/>class = 4>, fillcolor="#39e5c505"] ;
1 -> 1041 ;
1042 [label=<pixel_433 &le; 0.5<br/>gini = 0.804<br/>samples = 26.7%<br/>value = [0.001, 0.013, 0.039, 0.054, 0.265, 0.103, 0.02, 0.219<br/>0.04, 0.246]<br/>class = 4>, fillcolor="#39e5c506"] ;
1041 -> 1042 ;
1043 [label=<pixel_487 &le; 24.0<br/>gini = 0.581<br/>samples = 8.4%<br/>value = [0.003, 0.034, 0.03, 0.039, 0.073, 0.053, 0.019, 0.63<br/>0.018, 0.102]<br/>class = 7>, fillcolor="#a339e596"] ;
1042 -> 1043 ;
1044 [label=<pixel_406 &le; 13.5<br/>gini = 0.446<br/>samples = 7.1%<br/>value = [0.003, 0.041, 0.027, 0.046, 0.019, 0.062, 0.011, 0.737<br/>0.019, 0.036]<br/>class = 7>, fillcolor="#a339e5b8"] ;
1043 -> 1044 ;
1045 [label=<pixel_157 &le; 0.5<br/>gini = 0.194<br/>samples = 5.7%<br/>value = [0.003, 0.023, 0.027, 0.014, 0.004, 0.004, 0.013, 0.897<br/>0.002, 0.013]<br/>class = 7>, fillcolor="#a339e5e4"] ;
1044 -> 1045 ;
1046 [label=<gini = 0.104<br/>samples = 5.4%<br/>value = [0.001, 0.007, 0.012, 0.008, 0.003, 0.002, 0.005, 0.946<br/>0.002, 0.014]<br/>class = 7>, fillcolor="#a339e5f1"] ;
1045 -> 1046 ;
1117 [label=<gini = 0.794<br/>samples = 0.3%<br/>value = [0.044, 0.297, 0.278, 0.114, 0.006, 0.044, 0.139, 0.057<br/>0.013, 0.006]<br/>class = 1>, fillcolor="#e2e53907"] ;
1045 -> 1117 ;
1182 [label=<gini = 0.82<br/>samples = 1.3%<br/>value = [0.002, 0.115, 0.025, 0.184, 0.084, 0.31, 0.005, 0.051<br/>0.092, 0.133]<br/>class = 5>, fillcolor="#399de527"] ;
1044 -> 1182 ;
1311 [label=<gini = 0.67<br/>samples = 1.4%<br/>value = [0.004, 0.0, 0.049, 0.003, 0.35, 0.006, 0.059, 0.076<br/>0.01, 0.442]<br/>class = 9>, fillcolor="#e5395824"] ;
1043 -> 1311 ;
1448 [label=<pixel_212 &le; 8.5<br/>gini = 0.752<br/>samples = 18.2%<br/>value = [0.001, 0.003, 0.043, 0.061, 0.354, 0.126, 0.021, 0.029<br/>0.05, 0.313]<br/>class = 4>, fillcolor="#39e5c50f"] ;
1042 -> 1448 ;
1449 [label=<gini = 0.436<br/>samples = 6.9%<br/>value = [0.0, 0.006, 0.057, 0.019, 0.743, 0.066, 0.034, 0.021<br/>0.022, 0.033]<br/>class = 4>, fillcolor="#39e5c5b9"] ;
1448 -> 1449 ;
1696 [label=<pixel_355 &le; 0.5<br/>gini = 0.71<br/>samples = 11.3%<br/>value = [0.001, 0.001, 0.035, 0.086, 0.114, 0.163, 0.013, 0.034<br/>0.068, 0.486]<br/>class = 9>, fillcolor="#e5395862"] ;
1448 -> 1696 ;
1697 [label=<gini = 0.684<br/>samples = 3.4%<br/>value = [0.002, 0.004, 0.027, 0.083, 0.109, 0.525, 0.038, 0.038<br/>0.046, 0.129]<br/>class = 5>, fillcolor="#399de574"] ;
1696 -> 1697 ;
1922 [label=<gini = 0.56<br/>samples = 7.9%<br/>value = [0.001, 0.0, 0.038, 0.088, 0.117, 0.006, 0.002, 0.032<br/>0.077, 0.64]<br/>class = 9>, fillcolor="#e5395897"] ;
1696 -> 1922 ;
2247 [label=<pixel_271 &le; 0.5<br/>gini = 0.786<br/>samples = 20.7%<br/>value = [0.009, 0.027, 0.276, 0.01, 0.052, 0.045, 0.309, 0.054<br/>0.181, 0.038]<br/>class = 6>, fillcolor="#3c39e50c"] ;
1041 -> 2247 ;
2248 [label=<pixel_274 &le; 1.0<br/>gini = 0.558<br/>samples = 9.5%<br/>value = [0.003, 0.003, 0.136, 0.006, 0.031, 0.037, 0.637, 0.007<br/>0.124, 0.016]<br/>class = 6>, fillcolor="#3c39e594"] ;
2247 -> 2248 ;
2249 [label=<gini = 0.316<br/>samples = 7.3%<br/>value = [0.001, 0.004, 0.067, 0.004, 0.008, 0.044, 0.822, 0.005<br/>0.037, 0.008]<br/>class = 6>, fillcolor="#3c39e5ce"] ;
2248 -> 2249 ;
2444 [label=<gini = 0.697<br/>samples = 2.3%<br/>value = [0.013, 0.001, 0.353, 0.012, 0.102, 0.013, 0.047, 0.012<br/>0.403, 0.045]<br/>class = 8>, fillcolor="#e539c014"] ;
2248 -> 2444 ;
2631 [label=<pixel_348 &le; 0.5<br/>gini = 0.768<br/>samples = 11.2%<br/>value = [0.014, 0.048, 0.396, 0.013, 0.07, 0.052, 0.029, 0.094<br/>0.229, 0.056]<br/>class = 2>, fillcolor="#7be53937"] ;
2247 -> 2631 ;
2632 [label=<pixel_156 &le; 0.5<br/>gini = 0.592<br/>samples = 6.6%<br/>value = [0.002, 0.08, 0.616, 0.019, 0.03, 0.007, 0.025, 0.121<br/>0.052, 0.049]<br/>class = 2>, fillcolor="#7be53990"] ;
2631 -> 2632 ;
2633 [label=<gini = 0.815<br/>samples = 2.6%<br/>value = [0.0, 0.203, 0.191, 0.018, 0.071, 0.013, 0.057, 0.293<br/>0.05, 0.105]<br/>class = 7>, fillcolor="#a339e51d"] ;
2632 -> 2633 ;
2810 [label=<gini = 0.207<br/>samples = 4.0%<br/>value = [0.003, 0.002, 0.888, 0.019, 0.004, 0.003, 0.004, 0.012<br/>0.054, 0.013]<br/>class = 2>, fillcolor="#7be539e1"] ;
2632 -> 2810 ;
2911 [label=<gini = 0.72<br/>samples = 4.6%<br/>value = [0.031, 0.001, 0.076, 0.005, 0.127, 0.118, 0.035, 0.055<br/>0.485, 0.067]<br/>class = 8>, fillcolor="#e539c068"] ;
2631 -> 2911 ;
3276 [label=<pixel_490 &le; 7.5<br/>gini = 0.821<br/>samples = 35.4%<br/>value = [0.023, 0.293, 0.058, 0.231, 0.025, 0.103, 0.054, 0.024<br/>0.133, 0.056]<br/>class = 1>, fillcolor="#e2e53914"] ;
0 -> 3276 [labeldistance=2.5, labelangle=-45, headlabel="False"] ;
3277 [label=<pixel_291 &le; 34.5<br/>gini = 0.742<br/>samples = 16.5%<br/>value = [0.039, 0.025, 0.029, 0.447, 0.024, 0.191, 0.044, 0.023<br/>0.1, 0.078]<br/>class = 3>, fillcolor="#39e55e51"] ;
3276 -> 3277 ;
3278 [label=<pixel_487 &le; 59.0<br/>gini = 0.571<br/>samples = 10.1%<br/>value = [0.022, 0.038, 0.044, 0.639, 0.013, 0.103, 0.038, 0.009<br/>0.07, 0.024]<br/>class = 3>, fillcolor="#39e55e98"] ;
3277 -> 3278 ;
3279 [label=<pixel_297 &le; 2.5<br/>gini = 0.429<br/>samples = 8.2%<br/>value = [0.012, 0.041, 0.011, 0.745, 0.015, 0.113, 0.006, 0.011<br/>0.019, 0.028]<br/>class = 3>, fillcolor="#39e55eb6"] ;
3278 -> 3279 ;
3280 [label=<pixel_491 &le; 91.5<br/>gini = 0.722<br/>samples = 1.7%<br/>value = [0.007, 0.165, 0.026, 0.356, 0.022, 0.348, 0.018, 0.012<br/>0.029, 0.017]<br/>class = 3>, fillcolor="#39e55e03"] ;
3279 -> 3280 ;
3281 [label=<pixel_316 &le; 35.5<br/>gini = 0.644<br/>samples = 1.4%<br/>value = [0.009, 0.024, 0.028, 0.429, 0.025, 0.41, 0.022, 0.009<br/>0.027, 0.018]<br/>class = 3>, fillcolor="#39e55e08"] ;
3280 -> 3281 ;
3282 [label=<gini = 0.593<br/>samples = 1.0%<br/>value = [0.01, 0.031, 0.035, 0.563, 0.002, 0.293, 0.03, 0.004<br/>0.022, 0.01]<br/>class = 3>, fillcolor="#39e55e61"] ;
3281 -> 3282 ;
3365 [label=<gini = 0.406<br/>samples = 0.3%<br/>value = [0.006, 0.0, 0.006, 0.024, 0.095, 0.762, 0.0, 0.024<br/>0.042, 0.042]<br/>class = 5>, fillcolor="#399de5bc"] ;
3281 -> 3365 ;
3396 [label=<gini = 0.327<br/>samples = 0.3%<br/>value = [0.0, 0.816, 0.014, 0.02, 0.007, 0.061, 0.0, 0.027<br/>0.041, 0.014]<br/>class = 1>, fillcolor="#e2e539cd"] ;
3280 -> 3396 ;
3417 [label=<pixel_154 &le; 0.5<br/>gini = 0.282<br/>samples = 6.6%<br/>value = [0.013, 0.009, 0.007, 0.845, 0.013, 0.053, 0.002, 0.011<br/>0.017, 0.03]<br/>class = 3>, fillcolor="#39e55ed5"] ;
3279 -> 3417 ;
3418 [label=<pixel_209 &le; 49.5<br/>gini = 0.709<br/>samples = 1.5%<br/>value = [0.052, 0.02, 0.011, 0.484, 0.056, 0.184, 0.01, 0.047<br/>0.02, 0.117]<br/>class = 3>, fillcolor="#39e55e5e"] ;
3417 -> 3418 ;
3419 [label=<gini = 0.8<br/>samples = 0.7%<br/>value = [0.104, 0.04, 0.012, 0.178, 0.12, 0.362, 0.021, 0.074<br/>0.021, 0.067]<br/>class = 5>, fillcolor="#399de539"] ;
3418 -> 3419 ;
3494 [label=<gini = 0.426<br/>samples = 0.8%<br/>value = [0.008, 0.003, 0.01, 0.739, 0.003, 0.036, 0.0, 0.026<br/>0.018, 0.159]<br/>class = 3>, fillcolor="#39e55eb0"] ;
3418 -> 3494 ;
3551 [label=<gini = 0.101<br/>samples = 5.1%<br/>value = [0.002, 0.006, 0.006, 0.948, 0.0, 0.015, 0.0, 0.0<br/>0.016, 0.006]<br/>class = 3>, fillcolor="#39e55ef2"] ;
3417 -> 3551 ;
3638 [label=<gini = 0.804<br/>samples = 1.8%<br/>value = [0.07, 0.023, 0.194, 0.154, 0.005, 0.059, 0.186, 0.001<br/>0.303, 0.007]<br/>class = 8>, fillcolor="#e539c023"] ;
3278 -> 3638 ;
3871 [label=<pixel_298 &le; 3.5<br/>gini = 0.811<br/>samples = 6.4%<br/>value = [0.066, 0.006, 0.005, 0.147, 0.041, 0.33, 0.053, 0.044<br/>0.147, 0.162]<br/>class = 5>, fillcolor="#399de533"] ;
3277 -> 3871 ;
3872 [label=<gini = 0.571<br/>samples = 2.7%<br/>value = [0.047, 0.011, 0.003, 0.086, 0.035, 0.639, 0.08, 0.011<br/>0.054, 0.033]<br/>class = 5>, fillcolor="#399de59a"] ;
3871 -> 3872 ;
4077 [label=<gini = 0.828<br/>samples = 3.8%<br/>value = [0.08, 0.002, 0.006, 0.191, 0.045, 0.111, 0.033, 0.067<br/>0.213, 0.253]<br/>class = 9>, fillcolor="#e539580d"] ;
3871 -> 4077 ;
4444 [label=<pixel_348 &le; 1.5<br/>gini = 0.68<br/>samples = 18.9%<br/>value = [0.008, 0.526, 0.084, 0.043, 0.026, 0.026, 0.063, 0.026<br/>0.162, 0.036]<br/>class = 1>, fillcolor="#e2e5396f"] ;
3276 -> 4444 ;
4445 [label=<pixel_551 &le; 0.5<br/>gini = 0.456<br/>samples = 13.0%<br/>value = [0.001, 0.726, 0.098, 0.031, 0.006, 0.009, 0.026, 0.024<br/>0.072, 0.008]<br/>class = 1>, fillcolor="#e2e539b2"] ;
4444 -> 4445 ;
4446 [label=<gini = 0.278<br/>samples = 11.0%<br/>value = [0.0, 0.847, 0.032, 0.01, 0.005, 0.01, 0.008, 0.024<br/>0.059, 0.005]<br/>class = 1>, fillcolor="#e2e539d5"] ;
4445 -> 4446 ;
4725 [label=<gini = 0.728<br/>samples = 2.0%<br/>value = [0.005, 0.06, 0.458, 0.143, 0.009, 0.003, 0.128, 0.025<br/>0.141, 0.027]<br/>class = 2>, fillcolor="#7be5395e"] ;
4445 -> 4725 ;
4920 [label=<pixel_659 &le; 5.5<br/>gini = 0.813<br/>samples = 5.9%<br/>value = [0.024, 0.085, 0.053, 0.072, 0.07, 0.062, 0.144, 0.029<br/>0.362, 0.098]<br/>class = 8>, fillcolor="#e539c041"] ;
4444 -> 4920 ;
4921 [label=<pixel_576 &le; 108.5<br/>gini = 0.841<br/>samples = 2.6%<br/>value = [0.041, 0.07, 0.108, 0.049, 0.079, 0.104, 0.313, 0.029<br/>0.081, 0.125]<br/>class = 6>, fillcolor="#3c39e537"] ;
4920 -> 4921 ;
4922 [label=<pixel_277 &le; 8.5<br/>gini = 0.855<br/>samples = 1.2%<br/>value = [0.032, 0.082, 0.132, 0.027, 0.139, 0.169, 0.048, 0.048<br/>0.078, 0.245]<br/>class = 9>, fillcolor="#e5395818"] ;
4921 -> 4922 ;
4923 [label=<pixel_711 &le; 0.5<br/>gini = 0.841<br/>samples = 1.0%<br/>value = [0.03, 0.097, 0.156, 0.032, 0.162, 0.065, 0.057, 0.047<br/>0.065, 0.289]<br/>class = 9>, fillcolor="#e5395826"] ;
4922 -> 4923 ;
4924 [label=<pixel_527 &le; 24.0<br/>gini = 0.868<br/>samples = 0.7%<br/>value = [0.041, 0.131, 0.216, 0.041, 0.161, 0.085, 0.079, 0.03<br/>0.087, 0.128]<br/>class = 2>, fillcolor="#7be53911"] ;
4923 -> 4924 ;
4925 [label=<pixel_375 &le; 49.5<br/>gini = 0.876<br/>samples = 0.6%<br/>value = [0.049, 0.151, 0.089, 0.043, 0.188, 0.102, 0.089, 0.033<br/>0.105, 0.151]<br/>class = 4>, fillcolor="#39e5c50b"] ;
4924 -> 4925 ;
4926 [label=<gini = 0.798<br/>samples = 0.2%<br/>value = [0.017, 0.364, 0.085, 0.051, 0.025, 0.068, 0.068, 0.042<br/>0.203, 0.076]<br/>class = 1>, fillcolor="#e2e53934"] ;
4925 -> 4926 ;
4975 [label=<gini = 0.833<br/>samples = 0.4%<br/>value = [0.07, 0.016, 0.091, 0.038, 0.29, 0.124, 0.102, 0.027<br/>0.043, 0.199]<br/>class = 4>, fillcolor="#39e5c51d"] ;
4925 -> 4975 ;
5044 [label=<gini = 0.292<br/>samples = 0.1%<br/>value = [0.0, 0.032, 0.839, 0.032, 0.032, 0.0, 0.032, 0.016<br/>0.0, 0.016]<br/>class = 2>, fillcolor="#7be539d4"] ;
4924 -> 5044 ;
5065 [label=<gini = 0.464<br/>samples = 0.3%<br/>value = [0.0, 0.007, 0.0, 0.007, 0.164, 0.014, 0.0, 0.093<br/>0.007, 0.707]<br/>class = 9>, fillcolor="#e53958a6"] ;
4923 -> 5065 ;
5096 [label=<gini = 0.438<br/>samples = 0.2%<br/>value = [0.043, 0.0, 0.0, 0.0, 0.011, 0.731, 0.0, 0.054, 0.151<br/>0.011]<br/>class = 5>, fillcolor="#399de5ae"] ;
4922 -> 5096 ;
5117 [label=<pixel_244 &le; 40.5<br/>gini = 0.677<br/>samples = 1.4%<br/>value = [0.049, 0.061, 0.088, 0.069, 0.027, 0.048, 0.542, 0.012<br/>0.084, 0.022]<br/>class = 6>, fillcolor="#3c39e57f"] ;
4921 -> 5117 ;
5118 [label=<gini = 0.484<br/>samples = 1.0%<br/>value = [0.0, 0.079, 0.087, 0.028, 0.034, 0.018, 0.706, 0.0<br/>0.039, 0.008]<br/>class = 6>, fillcolor="#3c39e5ad"] ;
5117 -> 5118 ;
5197 [label=<gini = 0.859<br/>samples = 0.4%<br/>value = [0.169, 0.015, 0.09, 0.169, 0.01, 0.119, 0.139, 0.04<br/>0.194, 0.055]<br/>class = 8>, fillcolor="#e539c008"] ;
5117 -> 5197 ;
5272 [label=<pixel_516 &le; 56.5<br/>gini = 0.624<br/>samples = 3.3%<br/>value = [0.01, 0.098, 0.009, 0.09, 0.063, 0.028, 0.008, 0.03<br/>0.589, 0.076]<br/>class = 8>, fillcolor="#e539c08b"] ;
4920 -> 5272 ;
5273 [label=<gini = 0.824<br/>samples = 1.3%<br/>value = [0.011, 0.163, 0.0, 0.183, 0.111, 0.037, 0.0, 0.057<br/>0.26, 0.178]<br/>class = 8>, fillcolor="#e539c018"] ;
5272 -> 5273 ;
5424 [label=<pixel_295 &le; 232.5<br/>gini = 0.35<br/>samples = 2.0%<br/>value = [0.009, 0.055, 0.014, 0.03, 0.032, 0.023, 0.012, 0.012<br/>0.802, 0.009]<br/>class = 8>, fillcolor="#e539c0ca"] ;
5272 -> 5424 ;
5425 [label=<gini = 0.148<br/>samples = 1.5%<br/>value = [0.001, 0.001, 0.012, 0.019, 0.023, 0.012, 0.007, 0.0<br/>0.922, 0.003]<br/>class = 8>, fillcolor="#e539c0eb"] ;
5424 -> 5425 ;
5484 [label=<pixel_291 &le; 7.5<br/>gini = 0.766<br/>samples = 0.5%<br/>value = [0.036, 0.234, 0.023, 0.068, 0.063, 0.059, 0.032, 0.054<br/>0.401, 0.032]<br/>class = 8>, fillcolor="#e539c038"] ;
5424 -> 5484 ;
5485 [label=<gini = 0.696<br/>samples = 0.2%<br/>value = [0.012, 0.518, 0.035, 0.082, 0.082, 0.047, 0.059, 0.012<br/>0.118, 0.035]<br/>class = 1>, fillcolor="#e2e53974"] ;
5484 -> 5485 ;
5524 [label=<gini = 0.643<br/>samples = 0.3%<br/>value = [0.051, 0.058, 0.015, 0.058, 0.051, 0.066, 0.015, 0.08<br/>0.577, 0.029]<br/>class = 8>, fillcolor="#e539c08a"] ;
5484 -> 5524 ;
}